digraph Tree {
node [shape=box] ;
0 [label="X[12] <= 0.1418\ngini = 0.5\nsamples = 3168\nvalue = [1584, 1584]"] ;
1 [label="X[5] <= 0.0713\ngini = 0.103\nsamples = 1616\nvalue = [88, 1528]"] ;
0 -> 1 [labeldistance=2.5, labelangle=45, headlabel="True"] ;
2 [label="X[12] <= 0.1298\ngini = 0.4651\nsamples = 87\nvalue = [55, 32]"] ;
1 -> 2 ;
3 [label="X[9] <= 0.4381\ngini = 0.4383\nsamples = 37\nvalue = [12, 25]"] ;
2 -> 3 ;
4 [label="X[18] <= 0.4062\ngini = 0.1528\nsamples = 24\nvalue = [2, 22]"] ;
3 -> 4 ;
5 [label="gini = 0.0\nsamples = 1\nvalue = [1, 0]"] ;
4 -> 5 ;
6 [label="X[17] <= 7.5469\ngini = 0.0832\nsamples = 23\nvalue = [1, 22]"] ;
4 -> 6 ;
7 [label="gini = 0.0\nsamples = 22\nvalue = [0, 22]"] ;
6 -> 7 ;
8 [label="gini = 0.0\nsamples = 1\nvalue = [1, 0]"] ;
6 -> 8 ;
9 [label="X[17] <= 4.1787\ngini = 0.355\nsamples = 13\nvalue = [10, 3]"] ;
3 -> 9 ;
10 [label="gini = 0.0\nsamples = 9\nvalue = [9, 0]"] ;
9 -> 10 ;
11 [label="X[9] <= 0.5726\ngini = 0.375\nsamples = 4\nvalue = [1, 3]"] ;
9 -> 11 ;
12 [label="gini = 0.0\nsamples = 3\nvalue = [0, 3]"] ;
11 -> 12 ;
13 [label="gini = 0.0\nsamples = 1\nvalue = [1, 0]"] ;
11 -> 13 ;
14 [label="X[10] <= 0.1998\ngini = 0.2408\nsamples = 50\nvalue = [43, 7]"] ;
2 -> 14 ;
15 [label="X[4] <= 0.1841\ngini = 0.1049\nsamples = 36\nvalue = [34, 2]"] ;
14 -> 15 ;
16 [label="gini = 0.0\nsamples = 1\nvalue = [0, 1]"] ;
15 -> 16 ;
17 [label="X[12] <= 0.1312\ngini = 0.0555\nsamples = 35\nvalue = [34, 1]"] ;
15 -> 17 ;
18 [label="X[2] <= 0.1793\ngini = 0.4444\nsamples = 3\nvalue = [2, 1]"] ;
17 -> 18 ;
19 [label="gini = 0.0\nsamples = 1\nvalue = [0, 1]"] ;
18 -> 19 ;
20 [label="gini = 0.0\nsamples = 2\nvalue = [2, 0]"] ;
18 -> 20 ;
21 [label="gini = 0.0\nsamples = 32\nvalue = [32, 0]"] ;
17 -> 21 ;
22 [label="X[3] <= 0.1662\ngini = 0.4592\nsamples = 14\nvalue = [9, 5]"] ;
14 -> 22 ;
23 [label="X[12] <= 0.1416\ngini = 0.32\nsamples = 5\nvalue = [1, 4]"] ;
22 -> 23 ;
24 [label="gini = 0.0\nsamples = 4\nvalue = [0, 4]"] ;
23 -> 24 ;
25 [label="gini = 0.0\nsamples = 1\nvalue = [1, 0]"] ;
23 -> 25 ;
26 [label="X[9] <= 0.1489\ngini = 0.1975\nsamples = 9\nvalue = [8, 1]"] ;
22 -> 26 ;
27 [label="gini = 0.0\nsamples = 1\nvalue = [0, 1]"] ;
26 -> 27 ;
28 [label="gini = 0.0\nsamples = 8\nvalue = [8, 0]"] ;
26 -> 28 ;
29 [label="X[12] <= 0.1341\ngini = 0.0422\nsamples = 1529\nvalue = [33, 1496]"] ;
1 -> 29 ;
30 [label="X[6] <= 34.6315\ngini = 0.013\nsamples = 1375\nvalue = [9, 1366]"] ;
29 -> 30 ;
31 [label="X[13] <= 0.0104\ngini = 0.0116\nsamples = 1374\nvalue = [8, 1366]"] ;
30 -> 31 ;
32 [label="gini = 0.0\nsamples = 1\nvalue = [1, 0]"] ;
31 -> 32 ;
33 [label="X[13] <= 0.0154\ngini = 0.0101\nsamples = 1373\nvalue = [7, 1366]"] ;
31 -> 33 ;
34 [label="X[12] <= 0.1198\ngini = 0.32\nsamples = 15\nvalue = [3, 12]"] ;
33 -> 34 ;
35 [label="gini = 0.0\nsamples = 12\nvalue = [0, 12]"] ;
34 -> 35 ;
36 [label="gini = 0.0\nsamples = 3\nvalue = [3, 0]"] ;
34 -> 36 ;
37 [label="X[2] <= 0.0592\ngini = 0.0059\nsamples = 1358\nvalue = [4, 1354]"] ;
33 -> 37 ;
38 [label="X[12] <= 0.1164\ngini = 0.1975\nsamples = 9\nvalue = [1, 8]"] ;
37 -> 38 ;
39 [label="gini = 0.0\nsamples = 8\nvalue = [0, 8]"] ;
38 -> 39 ;
40 [label="gini = 0.0\nsamples = 1\nvalue = [1, 0]"] ;
38 -> 40 ;
41 [label="X[9] <= 0.7787\ngini = 0.0044\nsamples = 1349\nvalue = [3, 1346]"] ;
37 -> 41 ;
42 [label="X[10] <= 0.0718\ngini = 0.003\nsamples = 1330\nvalue = [2, 1328]"] ;
41 -> 42 ;
43 [label="X[5] <= 0.0987\ngini = 0.0408\nsamples = 96\nvalue = [2, 94]"] ;
42 -> 43 ;
44 [label="gini = 0.0\nsamples = 2\nvalue = [2, 0]"] ;
43 -> 44 ;
45 [label="gini = 0.0\nsamples = 94\nvalue = [0, 94]"] ;
43 -> 45 ;
46 [label="gini = 0.0\nsamples = 1234\nvalue = [0, 1234]"] ;
42 -> 46 ;
47 [label="X[7] <= 48.2855\ngini = 0.0997\nsamples = 19\nvalue = [1, 18]"] ;
41 -> 47 ;
48 [label="gini = 0.0\nsamples = 18\nvalue = [0, 18]"] ;
47 -> 48 ;
49 [label="gini = 0.0\nsamples = 1\nvalue = [1, 0]"] ;
47 -> 49 ;
50 [label="gini = 0.0\nsamples = 1\nvalue = [1, 0]"] ;
30 -> 50 ;
51 [label="X[13] <= 0.0414\ngini = 0.2631\nsamples = 154\nvalue = [24, 130]"] ;
29 -> 51 ;
52 [label="X[10] <= 0.1622\ngini = 0.4688\nsamples = 32\nvalue = [20, 12]"] ;
51 -> 52 ;
53 [label="X[4] <= 0.234\ngini = 0.32\nsamples = 25\nvalue = [20, 5]"] ;
52 -> 53 ;
54 [label="X[19] <= 0.0716\ngini = 0.1049\nsamples = 18\nvalue = [17, 1]"] ;
53 -> 54 ;
55 [label="gini = 0.0\nsamples = 1\nvalue = [0, 1]"] ;
54 -> 55 ;
56 [label="gini = 0.0\nsamples = 17\nvalue = [17, 0]"] ;
54 -> 56 ;
57 [label="X[0] <= 0.1771\ngini = 0.4898\nsamples = 7\nvalue = [3, 4]"] ;
53 -> 57 ;
58 [label="gini = 0.0\nsamples = 4\nvalue = [0, 4]"] ;
57 -> 58 ;
59 [label="gini = 0.0\nsamples = 3\nvalue = [3, 0]"] ;
57 -> 59 ;
60 [label="gini = 0.0\nsamples = 7\nvalue = [0, 7]"] ;
52 -> 60 ;
61 [label="X[16] <= 0.1987\ngini = 0.0634\nsamples = 122\nvalue = [4, 118]"] ;
51 -> 61 ;
62 [label="X[3] <= 0.1502\ngini = 0.0484\nsamples = 121\nvalue = [3, 118]"] ;
61 -> 62 ;
63 [label="gini = 0.0\nsamples = 110\nvalue = [0, 110]"] ;
62 -> 63 ;
64 [label="X[3] <= 0.1514\ngini = 0.3967\nsamples = 11\nvalue = [3, 8]"] ;
62 -> 64 ;
65 [label="gini = 0.0\nsamples = 2\nvalue = [2, 0]"] ;
64 -> 65 ;
66 [label="X[2] <= 0.2246\ngini = 0.1975\nsamples = 9\nvalue = [1, 8]"] ;
64 -> 66 ;
67 [label="gini = 0.0\nsamples = 8\nvalue = [0, 8]"] ;
66 -> 67 ;
68 [label="gini = 0.0\nsamples = 1\nvalue = [1, 0]"] ;
66 -> 68 ;
69 [label="gini = 0.0\nsamples = 1\nvalue = [1, 0]"] ;
61 -> 69 ;
70 [label="X[12] <= 0.1476\ngini = 0.0696\nsamples = 1552\nvalue = [1496, 56]"] ;
0 -> 70 [labeldistance=2.5, labelangle=-45, headlabel="False"] ;
71 [label="X[5] <= 0.0706\ngini = 0.417\nsamples = 108\nvalue = [76, 32]"] ;
70 -> 71 ;
72 [label="X[12] <= 0.1473\ngini = 0.0624\nsamples = 62\nvalue = [60, 2]"] ;
71 -> 72 ;
73 [label="X[13] <= 0.0491\ngini = 0.0333\nsamples = 59\nvalue = [58, 1]"] ;
72 -> 73 ;
74 [label="gini = 0.0\nsamples = 56\nvalue = [56, 0]"] ;
73 -> 74 ;
75 [label="X[18] <= 10.1367\ngini = 0.4444\nsamples = 3\nvalue = [2, 1]"] ;
73 -> 75 ;
76 [label="gini = 0.0\nsamples = 1\nvalue = [0, 1]"] ;
75 -> 76 ;
77 [label="gini = 0.0\nsamples = 2\nvalue = [2, 0]"] ;
75 -> 77 ;
78 [label="X[17] <= 4.8398\ngini = 0.4444\nsamples = 3\nvalue = [2, 1]"] ;
72 -> 78 ;
79 [label="gini = 0.0\nsamples = 2\nvalue = [2, 0]"] ;
78 -> 79 ;
80 [label="gini = 0.0\nsamples = 1\nvalue = [0, 1]"] ;
78 -> 80 ;
81 [label="X[9] <= 0.5379\ngini = 0.4537\nsamples = 46\nvalue = [16, 30]"] ;
71 -> 81 ;
82 [label="X[1] <= 0.0523\ngini = 0.1244\nsamples = 30\nvalue = [2, 28]"] ;
81 -> 82 ;
83 [label="X[4] <= 0.2452\ngini = 0.4444\nsamples = 3\nvalue = [2, 1]"] ;
82 -> 83 ;
84 [label="gini = 0.0\nsamples = 1\nvalue = [0, 1]"] ;
83 -> 84 ;
85 [label="gini = 0.0\nsamples = 2\nvalue = [2, 0]"] ;
83 -> 85 ;
86 [label="gini = 0.0\nsamples = 27\nvalue = [0, 27]"] ;
82 -> 86 ;
87 [label="X[7] <= 5.2573\ngini = 0.2188\nsamples = 16\nvalue = [14, 2]"] ;
81 -> 87 ;
88 [label="X[14] <= 0.2646\ngini = 0.4444\nsamples = 3\nvalue = [1, 2]"] ;
87 -> 88 ;
89 [label="gini = 0.0\nsamples = 1\nvalue = [1, 0]"] ;
88 -> 89 ;
90 [label="gini = 0.0\nsamples = 2\nvalue = [0, 2]"] ;
88 -> 90 ;
91 [label="gini = 0.0\nsamples = 13\nvalue = [13, 0]"] ;
87 -> 91 ;
92 [label="X[11] <= 0.0783\ngini = 0.0327\nsamples = 1444\nvalue = [1420, 24]"] ;
70 -> 92 ;
93 [label="gini = 0.0\nsamples = 1\nvalue = [0, 1]"] ;
92 -> 93 ;
94 [label="X[8] <= 0.9076\ngini = 0.0314\nsamples = 1443\nvalue = [1420, 23]"] ;
92 -> 94 ;
95 [label="X[9] <= 0.0816\ngini = 0.0054\nsamples = 1107\nvalue = [1104, 3]"] ;
94 -> 95 ;
96 [label="X[8] <= 0.8372\ngini = 0.4444\nsamples = 3\nvalue = [2, 1]"] ;
95 -> 96 ;
97 [label="gini = 0.0\nsamples = 2\nvalue = [2, 0]"] ;
96 -> 97 ;
98 [label="gini = 0.0\nsamples = 1\nvalue = [0, 1]"] ;
96 -> 98 ;
99 [label="X[12] <= 0.148\ngini = 0.0036\nsamples = 1104\nvalue = [1102, 2]"] ;
95 -> 99 ;
100 [label="X[13] <= 0.0503\ngini = 0.32\nsamples = 5\nvalue = [4, 1]"] ;
99 -> 100 ;
101 [label="gini = 0.0\nsamples = 4\nvalue = [4, 0]"] ;
100 -> 101 ;
102 [label="gini = 0.0\nsamples = 1\nvalue = [0, 1]"] ;
100 -> 102 ;
103 [label="X[10] <= 0.2771\ngini = 0.0018\nsamples = 1099\nvalue = [1098, 1]"] ;
99 -> 103 ;
104 [label="gini = 0.0\nsamples = 1089\nvalue = [1089, 0]"] ;
103 -> 104 ;
105 [label="X[3] <= 0.1444\ngini = 0.18\nsamples = 10\nvalue = [9, 1]"] ;
103 -> 105 ;
106 [label="gini = 0.0\nsamples = 1\nvalue = [0, 1]"] ;
105 -> 106 ;
107 [label="gini = 0.0\nsamples = 9\nvalue = [9, 0]"] ;
105 -> 107 ;
108 [label="X[18] <= 5.2891\ngini = 0.112\nsamples = 336\nvalue = [316, 20]"] ;
94 -> 108 ;
109 [label="X[12] <= 0.1495\ngini = 0.0228\nsamples = 260\nvalue = [257, 3]"] ;
108 -> 109 ;
110 [label="X[17] <= 4.1724\ngini = 0.2604\nsamples = 13\nvalue = [11, 2]"] ;
109 -> 110 ;
111 [label="gini = 0.0\nsamples = 11\nvalue = [11, 0]"] ;
110 -> 111 ;
112 [label="gini = 0.0\nsamples = 2\nvalue = [0, 2]"] ;
110 -> 112 ;
113 [label="X[5] <= 0.049\ngini = 0.0081\nsamples = 247\nvalue = [246, 1]"] ;
109 -> 113 ;
114 [label="X[1] <= 0.0621\ngini = 0.142\nsamples = 13\nvalue = [12, 1]"] ;
113 -> 114 ;
115 [label="gini = 0.0\nsamples = 12\nvalue = [12, 0]"] ;
114 -> 115 ;
116 [label="gini = 0.0\nsamples = 1\nvalue = [0, 1]"] ;
114 -> 116 ;
117 [label="gini = 0.0\nsamples = 234\nvalue = [234, 0]"] ;
113 -> 117 ;
118 [label="X[13] <= 0.0272\ngini = 0.3473\nsamples = 76\nvalue = [59, 17]"] ;
108 -> 118 ;
119 [label="X[14] <= 0.256\ngini = 0.4734\nsamples = 39\nvalue = [24, 15]"] ;
118 -> 119 ;
120 [label="X[17] <= 5.5273\ngini = 0.3457\nsamples = 9\nvalue = [2, 7]"] ;
119 -> 120 ;
121 [label="gini = 0.0\nsamples = 1\nvalue = [1, 0]"] ;
120 -> 121 ;
122 [label="X[10] <= 0.1994\ngini = 0.2188\nsamples = 8\nvalue = [1, 7]"] ;
120 -> 122 ;
123 [label="gini = 0.0\nsamples = 7\nvalue = [0, 7]"] ;
122 -> 123 ;
124 [label="gini = 0.0\nsamples = 1\nvalue = [1, 0]"] ;
122 -> 124 ;
125 [label="X[10] <= 0.1848\ngini = 0.3911\nsamples = 30\nvalue = [22, 8]"] ;
119 -> 125 ;
126 [label="X[10] <= 0.0116\ngini = 0.1244\nsamples = 15\nvalue = [14, 1]"] ;
125 -> 126 ;
127 [label="gini = 0.0\nsamples = 1\nvalue = [0, 1]"] ;
126 -> 127 ;
128 [label="gini = 0.0\nsamples = 14\nvalue = [14, 0]"] ;
126 -> 128 ;
129 [label="X[18] <= 6.4766\ngini = 0.4978\nsamples = 15\nvalue = [8, 7]"] ;
125 -> 129 ;
130 [label="X[15] <= 0.5868\ngini = 0.42\nsamples = 10\nvalue = [3, 7]"] ;
129 -> 130 ;
131 [label="gini = 0.0\nsamples = 3\nvalue = [3, 0]"] ;
130 -> 131 ;
132 [label="gini = 0.0\nsamples = 7\nvalue = [0, 7]"] ;
130 -> 132 ;
133 [label="gini = 0.0\nsamples = 5\nvalue = [5, 0]"] ;
129 -> 133 ;
134 [label="X[4] <= 0.2529\ngini = 0.1023\nsamples = 37\nvalue = [35, 2]"] ;
118 -> 134 ;
135 [label="X[4] <= 0.2471\ngini = 0.054\nsamples = 36\nvalue = [35, 1]"] ;
134 -> 135 ;
136 [label="gini = 0.0\nsamples = 33\nvalue = [33, 0]"] ;
135 -> 136 ;
137 [label="X[7] <= 5.2015\ngini = 0.4444\nsamples = 3\nvalue = [2, 1]"] ;
135 -> 137 ;
138 [label="gini = 0.0\nsamples = 1\nvalue = [0, 1]"] ;
137 -> 138 ;
139 [label="gini = 0.0\nsamples = 2\nvalue = [2, 0]"] ;
137 -> 139 ;
140 [label="gini = 0.0\nsamples = 1\nvalue = [0, 1]"] ;
134 -> 140 ;
}